70000.000000000000
0.330000000000
478.200000000000
0.006800000000
0.289500000000
30
-0.31399226174489664
0.7266959854247933
-0.6463606625868554
-0.51274512395496
0.21797207905017438
-1.075772202216466
0.08621029943565318
-0.2878908712192089
0.26388072620968067
0.12162182850735813
1.0727213652334484
0.022384931791012617
0.15241468802329794
0.22996382382908034
0.3695231583643293
0.28566260548064565
-0.1362752297702559
-0.18306157340991996
-0.20767978484998853
0.9586026493591244
0.5659808162839403
0.5856825861522155
-0.30992781206844944
-0.7761841532554153
-0.11215327181941136
-0.747909878851361
-0.11004429773075454
-0.530008594359293
-0.08538703262370541
0.04616597441445782
1.0384008336566226
0.4252199194422995
0.07690163250271008
0.1609957712346373
-0.3578129261742985
-0.27783232565244737
-0.24150352856424584
0.8544403662724823
-0.19000328135536598
0.14731052570541533
-0.9009297155905412
-0.25565916027481195
-0.5523854436518517
0.18256499587234198
0.11699962154453418
0.7170999677382514
-0.6661270261326457
-0.4110855416081675
-0.047789406552171676
0.06072190497712324
-0.022822294292733414
0.7848743610264578
0.6449447538576355
-0.14929688054323462
-0.8301634622574902
0.07505955124877103
-0.1485276719604718
0.0003150065796630744
-0.13139097706210437
0.20004228171946353
0.7425140075753293
-0.5422417048445658
0.18019706002704283
0.3753274138301374
-0.4875443196998091
-0.2704469003538943
-1.2038234351728974
-0.33111702305300134
0.31365428335412515
0.23213144124279975
0.2596100118893192
-0.16242186428415573
-0.8918619431972843
-0.18777304928862015
-0.2753816581493478
0.7469501014005082
0.4283376686649884
-0.505121667804256
-0.05463672099892539
0.04303419716085493
-0.6827158395500188
-1.0728814315333326
0.21070368471887466
0.1541718508079901
0.39131682635262965
-0.7276449253532957
-0.3284971296663341
-0.23505059464670372
0.08065027255711267
-0.827685600026172
-0.601808326762017
-0.7174044008012559
0.6709574957694256
-0.2856772092476041
-0.17754634418875184
0.09429733388135457
-0.3433300889503248
0.39226809892243286
-0.8717901737844195
-0.3731891025198646
0.6911698413351481
-0.30959374262727746
-0.6482449197393922
0.548253679070714
-0.02111981650489224
1.0187029693381349
0.7265064667529334
-0.25312622125980566
0.3592434500192213
-0.05297782281837434
0.160874261977752
0.6384393519219406
-0.7531633579495992
-0.003969536423080616
-0.0035747109673263957
-0.508576997074254
-0.7112686230153088
0.02024812633113723
-0.6578805027148055
-0.5771089461749206
0.11773703197073888
-0.9369351854268303
-0.007281565356857354
0.6706913638875321
-0.07951280891396896
0.8130256307478655
-0.6374785783538879
0.04123937667038865
0.34146151933574453
0.4006924994056231
0.7574936851525619
-0.026084956635810425
-0.19642870323600373
-0.7972951605483286
0.03501858683256291
0.3017862241892909
-1.1079357626332105
0.22432545616366759
0.0016696375258650298
-0.28746700638174505
0.5986341420879066
0.023675839949549474
0.714522854352106
0.4319390323096326
-0.6066274657114636
-0.08091217723775822
0.25401205277607813
0.2322278422749216
0.9393445608027365
0.5034808685478425
