70000.000000000000
0.330000000000
478.200000000000
0.006800000000
0.289500000000
30
0.10111178561161255
0.3449998415378953
-0.1280277304531203
-0.6351494854872798
1.2951399696108155
-1.0527162892918602
-0.4695132106586094
-0.5633218554665618
0.11904230093303664
0.08463048043701096
0.9174471001423217
0.5275566862131912
0.686177875484244
0.06374621807805678
0.2433622114459571
0.22894294728359693
-0.18252880079181374
-0.32929754304386855
-0.19489489552626602
0.3805588596524298
0.3805396754824899
0.8260448011691524
-0.8042278978568466
-1.1668271770468073
0.38925088653627893
-0.8332288852669018
-0.5237131290278546
-0.7183492789679697
-0.11078742224803866
0.09551840815009827
0.9908446079266228
0.05120605296038655
0.3598264741159118
0.18738890673140465
-0.10222007252891423
0.013689666858238895
-0.915872425362346
0.5965419443701625
-0.2673368791513982
0.03324961740621777
-1.0211981639091754
-0.4989088336364385
-0.5958015571395212
0.09303532781459807
-0.04445119527714299
0.30797459892959156
-0.568104553050991
-0.1523760296369785
-0.1803694236924548
0.24077467164127545
-0.12659378764154366
1.208009806115693
0.7300109832252384
0.030106030925969387
-0.33365036615025084
0.07302146972568592
-0.14509756410655208
0.00030311220670459845
-0.13099299927691838
0.1985954600182883
0.7368106300319606
-0.8432493709728027
-1.0815934481847078e-07
0.30210079682951235
-0.2877935805778676
0.07318235895644573
-0.2621958881567369
-0.24638388027333072
0.1844789491178331
0.08451425244388815
0.2998322817317003
-0.21569374334262226
-0.9054911388723239
-0.13410125244638293
-0.19900074532384088
0.6685046706413047
0.5535546229510065
-0.7838494319478552
-0.08261409076869461
0.12796654776939934
-0.23261634933065914
-0.41956772037080753
0.2553172325222434
0.040600641385176314
0.2394672990791674
-1.0584222155721807
-0.07974313722526861
-0.39881943880318327
-0.4705943996958966
-0.9543044352748014
-0.27888684436301553
-1.097421244050484
0.8698673651074358
-0.1428112669030621
-0.18475182712967014
-0.08977799821630034
-0.29517799797510474
0.037038272879256616
-0.3519843409926806
-0.2532484406457168
0.8480418840103502
0.05261153443922616
-0.31179523604359827
0.33056491156509726
-0.06432193697841593
1.0352474460932415
0.7442339461028076
-5.415359422725082e-07
0.1825376592360233
0.21985758616096548
0.1215758010320849
1.2261280089710356
-1.4117182914197629e-09
-0.0391807178042349
-0.054906120828219336
-0.098331872423863
-0.262028237599362
-0.20971476948090942
-0.4513019559282921
-0.2965346354712352
0.47312021172307017
-1.0612088769963899
0.35354168950671544
0.8133292965114356
-0.19564704331026975
1.0964719464808856
-0.46785594975023914
-2.1066046965562406e-07
0.5950562828652146
0.214492087086907
0.394605232643717
-0.18556907532148054
-0.14986725679522514
-1.2621148672962679
-0.028453667439399526
0.03949242961070764
-0.3042741785018255
0.05369676907572574
0.19475487376499317
-0.12253461165304538
0.6121520191329045
0.793729274804938
0.945301755262922
0.04594419789437778
-0.2931543914956491
-0.8718899766165572
-0.5265749906999642
0.7062955148739647
0.4310994461377569
0.3480583744725814
