70000.000000000000
0.330000000000
478.200000000000
0.006800000000
0.289500000000
36
0.046544174378508184
0.235730632558762
0.08348883333225486
-0.13118764022079937
-0.12514794905715815
-1.0507442368235376
-0.5552835080217031
-0.42361006610332097
-0.6134148429597301
0.15327360705819543
0.7868265208808717
-0.38666672349624076
-0.8715705507717407
0.3331001097396085
0.08270175745855936
0.2901836184185574
-0.181674855863887
-1.0211587074009623
0.16486099931523518
-0.11355554500739015
0.8997478042349024
0.610829067598633
0.6568000596090642
-0.04160056513472022
-0.31169025316286025
-0.24443409351416764
-0.20267016343466548
-0.07878226295823133
-1.145000249039688
0.6356630521914027
0.21410160603543568
-0.45257769687601207
0.31872564765449046
1.1308066965839914
-0.27235300589356276
0.04997763914453029
-0.31422927641864085
0.0824844984341542
1.083630243749328
-0.41955462188858483
-0.5952336968678517
-0.4749737011517932
-0.5276364158489875
-1.11599620659014
-0.4769747411702534
0.11200558133002099
-0.17274331957619563
-0.5707632873776181
0.260065878777962
1.1821516568807695
-0.04861921915499572
-1.1488194702596155
-0.6979157972577057
0.04167544656098395
0.17179746072142937
0.028522914975597773
-1.0669817969503665
-0.5151484487273588
0.3351873363374998
0.03017143867045367
1.0159436261222958
-0.6384077135058713
0.18656311362963932
0.7995609480889042
0.13698401233341936
0.11495535806366114
-1.0460640834785382
0.005988496181195588
0.07832134511264748
-0.2821945368361073
0.05776621355536228
-0.04830407174308776
-0.018494905186334253
0.22841945903235705
0.28747438397160247
-0.055861044999446496
1.1919168158271274
0.5162618602104575
0.9710887349063301
0.04244396817679595
-0.41780759474183227
0.24538759478321337
1.1027228288167457
-0.0905349040408672
0.13432571957701883
-0.9064455365541992
-0.7061062381524112
0.7814838648525317
0.09468755060634906
-0.21283612696501877
-0.48761883205106504
-0.9675123396923734
-0.9381711908378255
-0.11098563161400779
-0.30193996737589185
-0.05149174498031494
-1.0327409001182664
0.6389603330523925
-0.1200724218646526
0.8724486564740899
0.43294940807641186
-0.24151774773023302
0.08566259777487494
-0.04070060794169262
0.9075406419157711
0.9808520183151164
-0.6010763386937394
-0.36683093095639824
0.2310214912190032
0.1390213318850243
-0.22823351706033165
0.14928757770398793
-1.0833672568668267
-0.5939210733380922
0.5854505337931746
-0.08953886820078902
0.005145757354635726
-0.10300099907541181
0.1983521166219227
0.4187066243940033
0.04834647034307976
-1.1156652555950197
0.4937289709603794
-0.2755149399971237
-0.07743753280863838
0.8527953010215675
-0.492878466317059
-0.5133386548155546
0.07978003229048372
-0.3871026360899594
1.0787511730198271
0.5443349268971462
0.3304488462994185
-0.5928560880486681
-0.8412408953961138
-0.016327916009997816
-1.0370087180621794
-0.5861960035875391
0.11892565740535734
0.25445265691952806
0.1735604406891127
-0.5799524239796763
0.03787094417490654
0.22686726725965772
-0.04786286578765688
-0.6671545829246266
-0.5602961320335069
-0.6220070392182965
-0.8660888544217208
-0.12443566755006982
0.20801155851971834
0.28083783096034365
0.4228174038992109
-0.5270427698968537
-1.222242021822826
-0.021096443480316994
1.0447340380716583
0.5193884785452735
-0.22318741392701713
0.38748184740104946
0.8195525747144503
-0.5045276331926668
-0.32981782513520563
-0.060017174118458486
0.40360810263290997
-0.125240188726998
-0.13237463128951252
-0.07717573007021622
0.20093058142078002
0.23384251015078694
0.9560964042496736
0.4887318110463761
0.3251368288669821
-0.05101608595628193
-0.14685706301598292
0.02891936345713234
0.00028372073729117007
0.015095177554851555
-0.25958297245449086
0.10331377820576672
